-1.2051340392920969E-4,2.0897777890890572E-4,1.2946010094799767E-8,-2.3129490645943776E-4,-6.37458429939939E-5,3.8459644769265336E-4,1.2888558226602397E-5,5.413220174432354E-4,5.810576275044609E-4,3.837755537330271E-4,4.383919613362277E-4,-1.9850813001678208E-4,-1.0466491882579499E-4,5.328798431537075E-4,-8.20731553721783E-5,-1.9015213625065346E-4,-1.4035533639486663E-5,6.496820634599627E-5,7.068868613752099E-4,1.5926298184270287E-4,-7.129120543711767E-5,9.964790523045776E-5,3.653778506086192E-4,5.985114030043196E-4,5.856430266116652E-4,4.9632986996383754E-5,-1.9553899833211917E-5,6.727778391367851E-4,6.619918172433374E-5,1.8307323283314235E-4,1.9097024826320312E-4,6.729190987885449E-5,-1.9389786851954383E-4,-7.21204026688361E-5,2.5627341330033797E-4,-2.5833339103467143E-5,6.696646001805066E-4,4.052047737177443E-4,4.5607931370737184E-4,3.803282301167907E-4,3.0094413241705197E-4,7.7046490670007E-5,4.7111278466452393E-4,1.725864211584092E-5,-1.3840117802671096E-4,4.135432505603409E-4,-4.245120171337982E-6,-2.5786616772598755E-4,-9.9171602896056E-5,4.4507595814237855E-4,4.695297293893892E-5,5.195587865727735E-4,-7.394258127341981E-5,5.251703447866902E-4,4.2614047791018607E-4,1.5909974651693388E-4,3.041398986948144E-4,3.376736742789284E-4,4.3239696386373794E-4,5.504865270825716E-4,-1.5579705506521218E-4,4.3051598628002295E-4,-1.5302896883211757E-4,3.425236028699889E-4,-1.5224187725274986E-4,-2.2080996310370832E-5,3.190244908303861E-4,3.1964216029946383E-4,-5.9669201459172E-5,1.0403340496064832E-6,1.7188536436403052E-4,3.9832762557928783E-4,9.668874941443617E-5,-2.1201326098242037E-4,4.3654377142849277E-4,7.013793846791762E-4,3.429584713146067E-4,5.313004890839916E-4,-8.436599971455715E-4,1.0471568852977431E-4,2.1286680111022178E-4,-3.5701773328250573E-5,-9.324165351965402E-8,1.2582556119636838E-4,2.3586831135634161E-4,3.505253635692379E-4,4.4363091532783613E-4,-2.6371386606395066E-5,5.081402986506741E-4,3.468423611685667E-4,1.9483109101352782E-4,1.1406849525421162E-4,2.5277059331054174E-4,-9.861780920351303E-5,-1.1292819775908081E-4,3.504636854049263E-4,2.514305162525804E-4,1.11977977222348E-4,-1.0707701807675153E-4,4.62168261803223E-4